digraph Tree {
node [shape=box, style="filled", color="black", fontname="helvetica"] ;
edge [fontname="helvetica"] ;
0 [label="Glucose <= 154.5\ngini = 0.455\nsamples = 537\nvalue = [349, 188]\nclass = No Diabetes", fillcolor="#f3c5a4"] ;
1 [label="Age <= 28.5\ngini = 0.383\nsamples = 454\nvalue = [337, 117]\nclass = No Diabetes", fillcolor="#eead7e"] ;
0 -> 1 [labeldistance=2.5, labelangle=45, headlabel="True"] ;
2 [label="Glucose <= 127.5\ngini = 0.22\nsamples = 238\nvalue = [208, 30]\nclass = No Diabetes", fillcolor="#e99356"] ;
1 -> 2 ;
3 [label="BMI <= 49.1\ngini = 0.117\nsamples = 192\nvalue = [180, 12]\nclass = No Diabetes", fillcolor="#e78946"] ;
2 -> 3 ;
4 [label="BMI <= 31.4\ngini = 0.1\nsamples = 190\nvalue = [180, 10]\nclass = No Diabetes", fillcolor="#e68844"] ;
3 -> 4 ;
5 [label="DiabetesPedigreeFunction <= 0.672\ngini = 0.018\nsamples = 111\nvalue = [110, 1]\nclass = No Diabetes", fillcolor="#e5823b"] ;
4 -> 5 ;
6 [label="gini = 0.0\nsamples = 96\nvalue = [96, 0]\nclass = No Diabetes", fillcolor="#e58139"] ;
5 -> 6 ;
7 [label="DiabetesPedigreeFunction <= 0.697\ngini = 0.124\nsamples = 15\nvalue = [14, 1]\nclass = No Diabetes", fillcolor="#e78a47"] ;
5 -> 7 ;
8 [label="gini = 0.0\nsamples = 1\nvalue = [0, 1]\nclass = Diabetes", fillcolor="#399de5"] ;
7 -> 8 ;
9 [label="gini = 0.0\nsamples = 14\nvalue = [14, 0]\nclass = No Diabetes", fillcolor="#e58139"] ;
7 -> 9 ;
10 [label="Insulin <= 9.0\ngini = 0.202\nsamples = 79\nvalue = [70, 9]\nclass = No Diabetes", fillcolor="#e89152"] ;
4 -> 10 ;
11 [label="Glucose <= 111.5\ngini = 0.384\nsamples = 27\nvalue = [20, 7]\nclass = No Diabetes", fillcolor="#eead7e"] ;
10 -> 11 ;
12 [label="SkinThickness <= 40.5\ngini = 0.105\nsamples = 18\nvalue = [17, 1]\nclass = No Diabetes", fillcolor="#e78845"] ;
11 -> 12 ;
13 [label="gini = 0.0\nsamples = 17\nvalue = [17, 0]\nclass = No Diabetes", fillcolor="#e58139"] ;
12 -> 13 ;
14 [label="gini = 0.0\nsamples = 1\nvalue = [0, 1]\nclass = Diabetes", fillcolor="#399de5"] ;
12 -> 14 ;
15 [label="BloodPressure <= 72.0\ngini = 0.444\nsamples = 9\nvalue = [3, 6]\nclass = Diabetes", fillcolor="#9ccef2"] ;
11 -> 15 ;
16 [label="BMI <= 37.4\ngini = 0.48\nsamples = 5\nvalue = [3, 2]\nclass = No Diabetes", fillcolor="#f6d5bd"] ;
15 -> 16 ;
17 [label="BMI <= 32.6\ngini = 0.444\nsamples = 3\nvalue = [1, 2]\nclass = Diabetes", fillcolor="#9ccef2"] ;
16 -> 17 ;
18 [label="gini = 0.0\nsamples = 1\nvalue = [1, 0]\nclass = No Diabetes", fillcolor="#e58139"] ;
17 -> 18 ;
19 [label="gini = 0.0\nsamples = 2\nvalue = [0, 2]\nclass = Diabetes", fillcolor="#399de5"] ;
17 -> 19 ;
20 [label="gini = 0.0\nsamples = 2\nvalue = [2, 0]\nclass = No Diabetes", fillcolor="#e58139"] ;
16 -> 20 ;
21 [label="gini = 0.0\nsamples = 4\nvalue = [0, 4]\nclass = Diabetes", fillcolor="#399de5"] ;
15 -> 21 ;
22 [label="Pregnancies <= 4.5\ngini = 0.074\nsamples = 52\nvalue = [50, 2]\nclass = No Diabetes", fillcolor="#e68641"] ;
10 -> 22 ;
23 [label="DiabetesPedigreeFunction <= 0.64\ngini = 0.04\nsamples = 49\nvalue = [48, 1]\nclass = No Diabetes", fillcolor="#e6843d"] ;
22 -> 23 ;
24 [label="gini = 0.0\nsamples = 43\nvalue = [43, 0]\nclass = No Diabetes", fillcolor="#e58139"] ;
23 -> 24 ;
25 [label="DiabetesPedigreeFunction <= 0.676\ngini = 0.278\nsamples = 6\nvalue = [5, 1]\nclass = No Diabetes", fillcolor="#ea9a61"] ;
23 -> 25 ;
26 [label="gini = 0.0\nsamples = 1\nvalue = [0, 1]\nclass = Diabetes", fillcolor="#399de5"] ;
25 -> 26 ;
27 [label="gini = 0.0\nsamples = 5\nvalue = [5, 0]\nclass = No Diabetes", fillcolor="#e58139"] ;
25 -> 27 ;
28 [label="SkinThickness <= 40.5\ngini = 0.444\nsamples = 3\nvalue = [2, 1]\nclass = No Diabetes", fillcolor="#f2c09c"] ;
22 -> 28 ;
29 [label="gini = 0.0\nsamples = 2\nvalue = [2, 0]\nclass = No Diabetes", fillcolor="#e58139"] ;
28 -> 29 ;
30 [label="gini = 0.0\nsamples = 1\nvalue = [0, 1]\nclass = Diabetes", fillcolor="#399de5"] ;
28 -> 30 ;
31 [label="gini = 0.0\nsamples = 2\nvalue = [0, 2]\nclass = Diabetes", fillcolor="#399de5"] ;
3 -> 31 ;
32 [label="BloodPressure <= 56.0\ngini = 0.476\nsamples = 46\nvalue = [28, 18]\nclass = No Diabetes", fillcolor="#f6d2b8"] ;
2 -> 32 ;
33 [label="gini = 0.0\nsamples = 5\nvalue = [0, 5]\nclass = Diabetes", fillcolor="#399de5"] ;
32 -> 33 ;
34 [label="BMI <= 30.3\ngini = 0.433\nsamples = 41\nvalue = [28, 13]\nclass = No Diabetes", fillcolor="#f1bc95"] ;
32 -> 34 ;
35 [label="Age <= 27.5\ngini = 0.124\nsamples = 15\nvalue = [14, 1]\nclass = No Diabetes", fillcolor="#e78a47"] ;
34 -> 35 ;
36 [label="gini = 0.0\nsamples = 13\nvalue = [13, 0]\nclass = No Diabetes", fillcolor="#e58139"] ;
35 -> 36 ;
37 [label="BMI <= 28.15\ngini = 0.5\nsamples = 2\nvalue = [1, 1]\nclass = No Diabetes", fillcolor="#ffffff"] ;
35 -> 37 ;
38 [label="gini = 0.0\nsamples = 1\nvalue = [0, 1]\nclass = Diabetes", fillcolor="#399de5"] ;
37 -> 38 ;
39 [label="gini = 0.0\nsamples = 1\nvalue = [1, 0]\nclass = No Diabetes", fillcolor="#e58139"] ;
37 -> 39 ;
40 [label="BMI <= 32.0\ngini = 0.497\nsamples = 26\nvalue = [14, 12]\nclass = No Diabetes", fillcolor="#fbede3"] ;
34 -> 40 ;
41 [label="gini = 0.0\nsamples = 4\nvalue = [0, 4]\nclass = Diabetes", fillcolor="#399de5"] ;
40 -> 41 ;
42 [label="BloodPressure <= 85.0\ngini = 0.463\nsamples = 22\nvalue = [14, 8]\nclass = No Diabetes", fillcolor="#f4c9aa"] ;
40 -> 42 ;
43 [label="Pregnancies <= 0.5\ngini = 0.388\nsamples = 19\nvalue = [14, 5]\nclass = No Diabetes", fillcolor="#eeae80"] ;
42 -> 43 ;
44 [label="BMI <= 33.75\ngini = 0.49\nsamples = 7\nvalue = [3, 4]\nclass = Diabetes", fillcolor="#cee6f8"] ;
43 -> 44 ;
45 [label="gini = 0.0\nsamples = 3\nvalue = [3, 0]\nclass = No Diabetes", fillcolor="#e58139"] ;
44 -> 45 ;
46 [label="gini = 0.0\nsamples = 4\nvalue = [0, 4]\nclass = Diabetes", fillcolor="#399de5"] ;
44 -> 46 ;
47 [label="BMI <= 32.45\ngini = 0.153\nsamples = 12\nvalue = [11, 1]\nclass = No Diabetes", fillcolor="#e78c4b"] ;
43 -> 47 ;
48 [label="gini = 0.0\nsamples = 1\nvalue = [0, 1]\nclass = Diabetes", fillcolor="#399de5"] ;
47 -> 48 ;
49 [label="gini = 0.0\nsamples = 11\nvalue = [11, 0]\nclass = No Diabetes", fillcolor="#e58139"] ;
47 -> 49 ;
50 [label="gini = 0.0\nsamples = 3\nvalue = [0, 3]\nclass = Diabetes", fillcolor="#399de5"] ;
42 -> 50 ;
51 [label="BMI <= 26.95\ngini = 0.481\nsamples = 216\nvalue = [129, 87]\nclass = No Diabetes", fillcolor="#f7d6bf"] ;
1 -> 51 ;
52 [label="Age <= 29.5\ngini = 0.13\nsamples = 43\nvalue = [40, 3]\nclass = No Diabetes", fillcolor="#e78a48"] ;
51 -> 52 ;
53 [label="gini = 0.0\nsamples = 1\nvalue = [0, 1]\nclass = Diabetes", fillcolor="#399de5"] ;
52 -> 53 ;
54 [label="BloodPressure <= 94.0\ngini = 0.091\nsamples = 42\nvalue = [40, 2]\nclass = No Diabetes", fillcolor="#e68743"] ;
52 -> 54 ;
55 [label="Glucose <= 133.0\ngini = 0.049\nsamples = 40\nvalue = [39, 1]\nclass = No Diabetes", fillcolor="#e6843e"] ;
54 -> 55 ;
56 [label="gini = 0.0\nsamples = 34\nvalue = [34, 0]\nclass = No Diabetes", fillcolor="#e58139"] ;
55 -> 56 ;
57 [label="BloodPressure <= 73.0\ngini = 0.278\nsamples = 6\nvalue = [5, 1]\nclass = No Diabetes", fillcolor="#ea9a61"] ;
55 -> 57 ;
58 [label="Age <= 57.5\ngini = 0.5\nsamples = 2\nvalue = [1, 1]\nclass = No Diabetes", fillcolor="#ffffff"] ;
57 -> 58 ;
59 [label="gini = 0.0\nsamples = 1\nvalue = [1, 0]\nclass = No Diabetes", fillcolor="#e58139"] ;
58 -> 59 ;
60 [label="gini = 0.0\nsamples = 1\nvalue = [0, 1]\nclass = Diabetes", fillcolor="#399de5"] ;
58 -> 60 ;
61 [label="gini = 0.0\nsamples = 4\nvalue = [4, 0]\nclass = No Diabetes", fillcolor="#e58139"] ;
57 -> 61 ;
62 [label="Age <= 44.0\ngini = 0.5\nsamples = 2\nvalue = [1, 1]\nclass = No Diabetes", fillcolor="#ffffff"] ;
54 -> 62 ;
63 [label="gini = 0.0\nsamples = 1\nvalue = [1, 0]\nclass = No Diabetes", fillcolor="#e58139"] ;
62 -> 63 ;
64 [label="gini = 0.0\nsamples = 1\nvalue = [0, 1]\nclass = Diabetes", fillcolor="#399de5"] ;
62 -> 64 ;
65 [label="Glucose <= 94.5\ngini = 0.5\nsamples = 173\nvalue = [89, 84]\nclass = No Diabetes", fillcolor="#fef8f4"] ;
51 -> 65 ;
66 [label="Glucose <= 28.5\ngini = 0.26\nsamples = 26\nvalue = [22, 4]\nclass = No Diabetes", fillcolor="#ea985d"] ;
65 -> 66 ;
67 [label="gini = 0.0\nsamples = 2\nvalue = [0, 2]\nclass = Diabetes", fillcolor="#399de5"] ;
66 -> 67 ;
68 [label="Pregnancies <= 9.5\ngini = 0.153\nsamples = 24\nvalue = [22, 2]\nclass = No Diabetes", fillcolor="#e78c4b"] ;
66 -> 68 ;
69 [label="gini = 0.0\nsamples = 18\nvalue = [18, 0]\nclass = No Diabetes", fillcolor="#e58139"] ;
68 -> 69 ;
70 [label="Glucose <= 80.0\ngini = 0.444\nsamples = 6\nvalue = [4, 2]\nclass = No Diabetes", fillcolor="#f2c09c"] ;
68 -> 70 ;
71 [label="gini = 0.0\nsamples = 3\nvalue = [3, 0]\nclass = No Diabetes", fillcolor="#e58139"] ;
70 -> 71 ;
72 [label="SkinThickness <= 36.0\ngini = 0.444\nsamples = 3\nvalue = [1, 2]\nclass = Diabetes", fillcolor="#9ccef2"] ;
70 -> 72 ;
73 [label="gini = 0.0\nsamples = 2\nvalue = [0, 2]\nclass = Diabetes", fillcolor="#399de5"] ;
72 -> 73 ;
74 [label="gini = 0.0\nsamples = 1\nvalue = [1, 0]\nclass = No Diabetes", fillcolor="#e58139"] ;
72 -> 74 ;
75 [label="DiabetesPedigreeFunction <= 0.528\ngini = 0.496\nsamples = 147\nvalue = [67, 80]\nclass = Diabetes", fillcolor="#dfeffb"] ;
65 -> 75 ;
76 [label="BloodPressure <= 83.0\ngini = 0.498\nsamples = 99\nvalue = [53, 46]\nclass = No Diabetes", fillcolor="#fceee5"] ;
75 -> 76 ;
77 [label="SkinThickness <= 26.5\ngini = 0.498\nsamples = 75\nvalue = [35, 40]\nclass = Diabetes", fillcolor="#e6f3fc"] ;
76 -> 77 ;
78 [label="BMI <= 28.35\ngini = 0.434\nsamples = 44\nvalue = [14, 30]\nclass = Diabetes", fillcolor="#95cbf1"] ;
77 -> 78 ;
79 [label="DiabetesPedigreeFunction <= 0.25\ngini = 0.469\nsamples = 8\nvalue = [5, 3]\nclass = No Diabetes", fillcolor="#f5cdb0"] ;
78 -> 79 ;
80 [label="gini = 0.0\nsamples = 4\nvalue = [4, 0]\nclass = No Diabetes", fillcolor="#e58139"] ;
79 -> 80 ;
81 [label="BloodPressure <= 65.0\ngini = 0.375\nsamples = 4\nvalue = [1, 3]\nclass = Diabetes", fillcolor="#7bbeee"] ;
79 -> 81 ;
82 [label="gini = 0.0\nsamples = 1\nvalue = [1, 0]\nclass = No Diabetes", fillcolor="#e58139"] ;
81 -> 82 ;
83 [label="gini = 0.0\nsamples = 3\nvalue = [0, 3]\nclass = Diabetes", fillcolor="#399de5"] ;
81 -> 83 ;
84 [label="BMI <= 31.15\ngini = 0.375\nsamples = 36\nvalue = [9, 27]\nclass = Diabetes", fillcolor="#7bbeee"] ;
78 -> 84 ;
85 [label="gini = 0.0\nsamples = 9\nvalue = [0, 9]\nclass = Diabetes", fillcolor="#399de5"] ;
84 -> 85 ;
86 [label="BloodPressure <= 67.0\ngini = 0.444\nsamples = 27\nvalue = [9, 18]\nclass = Diabetes", fillcolor="#9ccef2"] ;
84 -> 86 ;
87 [label="gini = 0.0\nsamples = 6\nvalue = [0, 6]\nclass = Diabetes", fillcolor="#399de5"] ;
86 -> 87 ;
88 [label="Age <= 36.5\ngini = 0.49\nsamples = 21\nvalue = [9, 12]\nclass = Diabetes", fillcolor="#cee6f8"] ;
86 -> 88 ;
89 [label="gini = 0.0\nsamples = 4\nvalue = [4, 0]\nclass = No Diabetes", fillcolor="#e58139"] ;
88 -> 89 ;
90 [label="BloodPressure <= 71.0\ngini = 0.415\nsamples = 17\nvalue = [5, 12]\nclass = Diabetes", fillcolor="#8bc6f0"] ;
88 -> 90 ;
91 [label="gini = 0.0\nsamples = 2\nvalue = [2, 0]\nclass = No Diabetes", fillcolor="#e58139"] ;
90 -> 91 ;
92 [label="DiabetesPedigreeFunction <= 0.21\ngini = 0.32\nsamples = 15\nvalue = [3, 12]\nclass = Diabetes", fillcolor="#6ab6ec"] ;
90 -> 92 ;
93 [label="Pregnancies <= 5.5\ngini = 0.375\nsamples = 4\nvalue = [3, 1]\nclass = No Diabetes", fillcolor="#eeab7b"] ;
92 -> 93 ;
94 [label="gini = 0.0\nsamples = 3\nvalue = [3, 0]\nclass = No Diabetes", fillcolor="#e58139"] ;
93 -> 94 ;
95 [label="gini = 0.0\nsamples = 1\nvalue = [0, 1]\nclass = Diabetes", fillcolor="#399de5"] ;
93 -> 95 ;
96 [label="gini = 0.0\nsamples = 11\nvalue = [0, 11]\nclass = Diabetes", fillcolor="#399de5"] ;
92 -> 96 ;
97 [label="Glucose <= 127.5\ngini = 0.437\nsamples = 31\nvalue = [21, 10]\nclass = No Diabetes", fillcolor="#f1bd97"] ;
77 -> 97 ;
98 [label="BloodPressure <= 67.0\ngini = 0.298\nsamples = 22\nvalue = [18, 4]\nclass = No Diabetes", fillcolor="#eb9d65"] ;
97 -> 98 ;
99 [label="Pregnancies <= 5.5\ngini = 0.5\nsamples = 6\nvalue = [3, 3]\nclass = No Diabetes", fillcolor="#ffffff"] ;
98 -> 99 ;
100 [label="Glucose <= 112.0\ngini = 0.375\nsamples = 4\nvalue = [3, 1]\nclass = No Diabetes", fillcolor="#eeab7b"] ;
99 -> 100 ;
101 [label="gini = 0.0\nsamples = 3\nvalue = [3, 0]\nclass = No Diabetes", fillcolor="#e58139"] ;
100 -> 101 ;
102 [label="gini = 0.0\nsamples = 1\nvalue = [0, 1]\nclass = Diabetes", fillcolor="#399de5"] ;
100 -> 102 ;
103 [label="gini = 0.0\nsamples = 2\nvalue = [0, 2]\nclass = Diabetes", fillcolor="#399de5"] ;
99 -> 103 ;
104 [label="BloodPressure <= 80.0\ngini = 0.117\nsamples = 16\nvalue = [15, 1]\nclass = No Diabetes", fillcolor="#e78946"] ;
98 -> 104 ;
105 [label="gini = 0.0\nsamples = 14\nvalue = [14, 0]\nclass = No Diabetes", fillcolor="#e58139"] ;
104 -> 105 ;
106 [label="Insulin <= 87.5\ngini = 0.5\nsamples = 2\nvalue = [1, 1]\nclass = No Diabetes", fillcolor="#ffffff"] ;
104 -> 106 ;
107 [label="gini = 0.0\nsamples = 1\nvalue = [1, 0]\nclass = No Diabetes", fillcolor="#e58139"] ;
106 -> 107 ;
108 [label="gini = 0.0\nsamples = 1\nvalue = [0, 1]\nclass = Diabetes", fillcolor="#399de5"] ;
106 -> 108 ;
109 [label="DiabetesPedigreeFunction <= 0.311\ngini = 0.444\nsamples = 9\nvalue = [3, 6]\nclass = Diabetes", fillcolor="#9ccef2"] ;
97 -> 109 ;
110 [label="SkinThickness <= 31.0\ngini = 0.375\nsamples = 4\nvalue = [3, 1]\nclass = No Diabetes", fillcolor="#eeab7b"] ;
109 -> 110 ;
111 [label="gini = 0.0\nsamples = 3\nvalue = [3, 0]\nclass = No Diabetes", fillcolor="#e58139"] ;
110 -> 111 ;
112 [label="gini = 0.0\nsamples = 1\nvalue = [0, 1]\nclass = Diabetes", fillcolor="#399de5"] ;
110 -> 112 ;
113 [label="gini = 0.0\nsamples = 5\nvalue = [0, 5]\nclass = Diabetes", fillcolor="#399de5"] ;
109 -> 113 ;
114 [label="Insulin <= 124.0\ngini = 0.375\nsamples = 24\nvalue = [18, 6]\nclass = No Diabetes", fillcolor="#eeab7b"] ;
76 -> 114 ;
115 [label="BMI <= 41.2\ngini = 0.188\nsamples = 19\nvalue = [17, 2]\nclass = No Diabetes", fillcolor="#e89050"] ;
114 -> 115 ;
116 [label="SkinThickness <= 39.5\ngini = 0.105\nsamples = 18\nvalue = [17, 1]\nclass = No Diabetes", fillcolor="#e78845"] ;
115 -> 116 ;
117 [label="gini = 0.0\nsamples = 16\nvalue = [16, 0]\nclass = No Diabetes", fillcolor="#e58139"] ;
116 -> 117 ;
118 [label="DiabetesPedigreeFunction <= 0.339\ngini = 0.5\nsamples = 2\nvalue = [1, 1]\nclass = No Diabetes", fillcolor="#ffffff"] ;
116 -> 118 ;
119 [label="gini = 0.0\nsamples = 1\nvalue = [0, 1]\nclass = Diabetes", fillcolor="#399de5"] ;
118 -> 119 ;
120 [label="gini = 0.0\nsamples = 1\nvalue = [1, 0]\nclass = No Diabetes", fillcolor="#e58139"] ;
118 -> 120 ;
121 [label="gini = 0.0\nsamples = 1\nvalue = [0, 1]\nclass = Diabetes", fillcolor="#399de5"] ;
115 -> 121 ;
122 [label="SkinThickness <= 19.5\ngini = 0.32\nsamples = 5\nvalue = [1, 4]\nclass = Diabetes", fillcolor="#6ab6ec"] ;
114 -> 122 ;
123 [label="gini = 0.0\nsamples = 1\nvalue = [1, 0]\nclass = No Diabetes", fillcolor="#e58139"] ;
122 -> 123 ;
124 [label="gini = 0.0\nsamples = 4\nvalue = [0, 4]\nclass = Diabetes", fillcolor="#399de5"] ;
122 -> 124 ;
125 [label="BMI <= 31.6\ngini = 0.413\nsamples = 48\nvalue = [14, 34]\nclass = Diabetes", fillcolor="#8bc5f0"] ;
75 -> 125 ;
126 [label="BMI <= 29.1\ngini = 0.498\nsamples = 17\nvalue = [9, 8]\nclass = No Diabetes", fillcolor="#fcf1e9"] ;
125 -> 126 ;
127 [label="Glucose <= 132.0\ngini = 0.42\nsamples = 10\nvalue = [3, 7]\nclass = Diabetes", fillcolor="#8ec7f0"] ;
126 -> 127 ;
128 [label="Glucose <= 108.5\ngini = 0.219\nsamples = 8\nvalue = [1, 7]\nclass = Diabetes", fillcolor="#55abe9"] ;
127 -> 128 ;
129 [label="BloodPressure <= 76.0\ngini = 0.5\nsamples = 2\nvalue = [1, 1]\nclass = No Diabetes", fillcolor="#ffffff"] ;
128 -> 129 ;
130 [label="gini = 0.0\nsamples = 1\nvalue = [1, 0]\nclass = No Diabetes", fillcolor="#e58139"] ;
129 -> 130 ;
131 [label="gini = 0.0\nsamples = 1\nvalue = [0, 1]\nclass = Diabetes", fillcolor="#399de5"] ;
129 -> 131 ;
132 [label="gini = 0.0\nsamples = 6\nvalue = [0, 6]\nclass = Diabetes", fillcolor="#399de5"] ;
128 -> 132 ;
133 [label="gini = 0.0\nsamples = 2\nvalue = [2, 0]\nclass = No Diabetes", fillcolor="#e58139"] ;
127 -> 133 ;
134 [label="Age <= 50.0\ngini = 0.245\nsamples = 7\nvalue = [6, 1]\nclass = No Diabetes", fillcolor="#e9965a"] ;
126 -> 134 ;
135 [label="gini = 0.0\nsamples = 6\nvalue = [6, 0]\nclass = No Diabetes", fillcolor="#e58139"] ;
134 -> 135 ;
136 [label="gini = 0.0\nsamples = 1\nvalue = [0, 1]\nclass = Diabetes", fillcolor="#399de5"] ;
134 -> 136 ;
137 [label="DiabetesPedigreeFunction <= 1.149\ngini = 0.271\nsamples = 31\nvalue = [5, 26]\nclass = Diabetes", fillcolor="#5fb0ea"] ;
125 -> 137 ;
138 [label="SkinThickness <= 54.5\ngini = 0.142\nsamples = 26\nvalue = [2, 24]\nclass = Diabetes", fillcolor="#49a5e7"] ;
137 -> 138 ;
139 [label="BloodPressure <= 87.0\ngini = 0.077\nsamples = 25\nvalue = [1, 24]\nclass = Diabetes", fillcolor="#41a1e6"] ;
138 -> 139 ;
140 [label="gini = 0.0\nsamples = 21\nvalue = [0, 21]\nclass = Diabetes", fillcolor="#399de5"] ;
139 -> 140 ;
141 [label="Age <= 31.5\ngini = 0.375\nsamples = 4\nvalue = [1, 3]\nclass = Diabetes", fillcolor="#7bbeee"] ;
139 -> 141 ;
142 [label="gini = 0.0\nsamples = 1\nvalue = [1, 0]\nclass = No Diabetes", fillcolor="#e58139"] ;
141 -> 142 ;
143 [label="gini = 0.0\nsamples = 3\nvalue = [0, 3]\nclass = Diabetes", fillcolor="#399de5"] ;
141 -> 143 ;
144 [label="gini = 0.0\nsamples = 1\nvalue = [1, 0]\nclass = No Diabetes", fillcolor="#e58139"] ;
138 -> 144 ;
145 [label="Age <= 36.0\ngini = 0.48\nsamples = 5\nvalue = [3, 2]\nclass = No Diabetes", fillcolor="#f6d5bd"] ;
137 -> 145 ;
146 [label="gini = 0.0\nsamples = 2\nvalue = [0, 2]\nclass = Diabetes", fillcolor="#399de5"] ;
145 -> 146 ;
147 [label="gini = 0.0\nsamples = 3\nvalue = [3, 0]\nclass = No Diabetes", fillcolor="#e58139"] ;
145 -> 147 ;
148 [label="BMI <= 28.7\ngini = 0.247\nsamples = 83\nvalue = [12, 71]\nclass = Diabetes", fillcolor="#5aaee9"] ;
0 -> 148 [labeldistance=2.5, labelangle=-45, headlabel="False"] ;
149 [label="BMI <= 25.35\ngini = 0.486\nsamples = 12\nvalue = [5, 7]\nclass = Diabetes", fillcolor="#c6e3f8"] ;
148 -> 149 ;
150 [label="gini = 0.0\nsamples = 4\nvalue = [0, 4]\nclass = Diabetes", fillcolor="#399de5"] ;
149 -> 150 ;
151 [label="DiabetesPedigreeFunction <= 0.368\ngini = 0.469\nsamples = 8\nvalue = [5, 3]\nclass = No Diabetes", fillcolor="#f5cdb0"] ;
149 -> 151 ;
152 [label="gini = 0.0\nsamples = 3\nvalue = [3, 0]\nclass = No Diabetes", fillcolor="#e58139"] ;
151 -> 152 ;
153 [label="Glucose <= 179.5\ngini = 0.48\nsamples = 5\nvalue = [2, 3]\nclass = Diabetes", fillcolor="#bddef6"] ;
151 -> 153 ;
154 [label="gini = 0.0\nsamples = 2\nvalue = [0, 2]\nclass = Diabetes", fillcolor="#399de5"] ;
153 -> 154 ;
155 [label="DiabetesPedigreeFunction <= 0.923\ngini = 0.444\nsamples = 3\nvalue = [2, 1]\nclass = No Diabetes", fillcolor="#f2c09c"] ;
153 -> 155 ;
156 [label="gini = 0.0\nsamples = 2\nvalue = [2, 0]\nclass = No Diabetes", fillcolor="#e58139"] ;
155 -> 156 ;
157 [label="gini = 0.0\nsamples = 1\nvalue = [0, 1]\nclass = Diabetes", fillcolor="#399de5"] ;
155 -> 157 ;
158 [label="DiabetesPedigreeFunction <= 1.428\ngini = 0.178\nsamples = 71\nvalue = [7, 64]\nclass = Diabetes", fillcolor="#4fa8e8"] ;
148 -> 158 ;
159 [label="DiabetesPedigreeFunction <= 0.304\ngini = 0.14\nsamples = 66\nvalue = [5, 61]\nclass = Diabetes", fillcolor="#49a5e7"] ;
158 -> 159 ;
160 [label="Age <= 30.5\ngini = 0.32\nsamples = 20\nvalue = [4, 16]\nclass = Diabetes", fillcolor="#6ab6ec"] ;
159 -> 160 ;
161 [label="Insulin <= 457.0\ngini = 0.494\nsamples = 9\nvalue = [4, 5]\nclass = Diabetes", fillcolor="#d7ebfa"] ;
160 -> 161 ;
162 [label="Insulin <= 180.0\ngini = 0.444\nsamples = 6\nvalue = [4, 2]\nclass = No Diabetes", fillcolor="#f2c09c"] ;
161 -> 162 ;
163 [label="BloodPressure <= 67.0\ngini = 0.444\nsamples = 3\nvalue = [1, 2]\nclass = Diabetes", fillcolor="#9ccef2"] ;
162 -> 163 ;
164 [label="gini = 0.0\nsamples = 1\nvalue = [1, 0]\nclass = No Diabetes", fillcolor="#e58139"] ;
163 -> 164 ;
165 [label="gini = 0.0\nsamples = 2\nvalue = [0, 2]\nclass = Diabetes", fillcolor="#399de5"] ;
163 -> 165 ;
166 [label="gini = 0.0\nsamples = 3\nvalue = [3, 0]\nclass = No Diabetes", fillcolor="#e58139"] ;
162 -> 166 ;
167 [label="gini = 0.0\nsamples = 3\nvalue = [0, 3]\nclass = Diabetes", fillcolor="#399de5"] ;
161 -> 167 ;
168 [label="gini = 0.0\nsamples = 11\nvalue = [0, 11]\nclass = Diabetes", fillcolor="#399de5"] ;
160 -> 168 ;
169 [label="Glucose <= 165.5\ngini = 0.043\nsamples = 46\nvalue = [1, 45]\nclass = Diabetes", fillcolor="#3d9fe6"] ;
159 -> 169 ;
170 [label="Glucose <= 164.5\ngini = 0.165\nsamples = 11\nvalue = [1, 10]\nclass = Diabetes", fillcolor="#4da7e8"] ;
169 -> 170 ;
171 [label="gini = 0.0\nsamples = 10\nvalue = [0, 10]\nclass = Diabetes", fillcolor="#399de5"] ;
170 -> 171 ;
172 [label="gini = 0.0\nsamples = 1\nvalue = [1, 0]\nclass = No Diabetes", fillcolor="#e58139"] ;
170 -> 172 ;
173 [label="gini = 0.0\nsamples = 35\nvalue = [0, 35]\nclass = Diabetes", fillcolor="#399de5"] ;
169 -> 173 ;
174 [label="Glucose <= 181.5\ngini = 0.48\nsamples = 5\nvalue = [2, 3]\nclass = Diabetes", fillcolor="#bddef6"] ;
158 -> 174 ;
175 [label="gini = 0.0\nsamples = 3\nvalue = [0, 3]\nclass = Diabetes", fillcolor="#399de5"] ;
174 -> 175 ;
176 [label="gini = 0.0\nsamples = 2\nvalue = [2, 0]\nclass = No Diabetes", fillcolor="#e58139"] ;
174 -> 176 ;
}